{
    "bias": 1.0,
    "learningRate": 0.05,
    "momentum": 1.0,
    "topology": [
        3,
        30,
        20,
        1
    ],
    "weights": [
        [
            [
                0.10021958231109131,
                0.10543699975933304,
                0.10467498862359328,
                0.10153843514116069,
                0.11101902340256892,
                0.09951917915150374,
                0.08669923709281105,
                0.09617027992646784,
                0.08345521969746332,
                0.06898810700717711,
                0.10397357103743689,
                0.09813562654214734,
                0.10249783962280988,
                0.07651486198115674,
                0.10538977387754689,
                0.08417328196062653,
                0.08026003554575431,
                0.07539872722973297,
                0.10571577063193376,
                0.10549238578920236,
                0.10661244677250634,
                0.08638719535472339,
                0.09091629131556282,
                0.0960083611440717,
                0.10024145500272377,
                0.08965200111911838,
                0.08300215843916078,
                0.08513540051507117,
                0.10777100529266875,
                0.10507454677203458
            ],
            [
                0.10688559441746344,
                0.11373183035969914,
                0.11314811069506023,
                0.10856509147174237,
                0.12168196408952793,
                0.1075538826664638,
                0.09169805440036326,
                0.10143306705725433,
                0.08977731228681818,
                0.07226610360007418,
                0.11250226791203959,
                0.10684423388786697,
                0.11016032188183453,
                0.0820970806625379,
                0.1144962432106817,
                0.09057402329576587,
                0.0866286755514175,
                0.07940484823073599,
                0.11360897938113465,
                0.11509005196101696,
                0.11625388757598705,
                0.09301058946550184,
                0.09830175811870358,
                0.10237254081642677,
                0.10765842279132508,
                0.0963899858188138,
                0.08819870914037041,
                0.08916818968750885,
                0.1179837893668311,
                0.11265432038992498
            ],
            [
                0.11212638233439509,
                0.12068544215672763,
                0.11887750526394639,
                0.11596971503368195,
                0.13062126531433502,
                0.11319762684790854,
                0.09626141377229701,
                0.1074611880506204,
                0.09306113337282709,
                0.07566322305928838,
                0.11836927110329859,
                0.1129132050048522,
                0.1160364309034226,
                0.08527304227199775,
                0.12161928479616312,
                0.09434177738315959,
                0.08875517158992663,
                0.08299071403304698,
                0.12076921921769408,
                0.12130199347511142,
                0.12396474948055132,
                0.097203059147632,
                0.10293608223660562,
                0.1068334637828528,
                0.11321565383449497,
                0.09987696867064146,
                0.09267332736030731,
                0.09322380178614811,
                0.12544799101138326,
                0.11921621254348376
            ]
        ],
        [
            [
                0.005202680584860099,
                0.009158765027641395,
                0.004439135551557704,
                0.004176838309303788,
                0.012609850161575493,
                0.00013770800685102987,
                0.0022543645214750836,
                0.013023465583533487,
                0.0004986201849473065,
                0.008838327440288856,
                0.0028395357628176335,
                -0.009549868062681365,
                0.015262320250255045,
                -0.006818156146586351,
                0.008165981063977304,
                0.003840464907029501,
                -0.0037735018342198155,
                -0.001293404372481903,
                0.011842261890516731,
                0.002010771198134484
            ],
            [
                0.009373826480764427,
                0.012098219431080371,
                0.008270987540238067,
                0.009046754549603318,
                0.017071317339452132,
                0.0038265822111714677,
                0.005935051891183433,
                0.018262039610272833,
                0.006020372375398421,
                0.014777786655138004,
                0.006669926096473413,
                -0.00470179707887169,
                0.019833259717476247,
                -0.0030087302017375544,
                0.012842366246131564,
                0.009267126236713637,
                -0.00030635232889981816,
                0.0019194795002125838,
                0.015978127281376018,
                0.005154283322588023
            ],
            [
                0.00842424049453072,
                0.012077980982528927,
                0.008022549163842846,
                0.007328164010515956,
                0.0159101844799647,
                0.0033150740335627315,
                0.00629081595467744,
                0.015548953828809393,
                0.004349591684908149,
                0.01340922866780594,
                0.005992287881765214,
                -0.006231955923798306,
                0.01884788102159873,
                -0.0031766272998135976,
                0.011149304553195773,
                0.007909004011474442,
                -0.0013988000884324785,
                0.0010802455813364068,
                0.015220594477169825,
                0.00470359747434935
            ],
            [
                0.005644780758386583,
                0.010651762047737141,
                0.005398325103169614,
                0.006290282390715369,
                0.014121084572401637,
                0.0017918709068387932,
                0.003259605751366885,
                0.01407556098451136,
                0.002035882058444037,
                0.010654738464127043,
                0.0042030417107850465,
                -0.0065964286452580454,
                0.01652419018577021,
                -0.004879795758490052,
                0.010049721565720893,
                0.0058326970945862975,
                -0.0027793698741158286,
                -5.952354097900001e-05,
                0.013151518933596921,
                0.003154741664400998
            ],
            [
                0.01657593219383507,
                0.01982656688541974,
                0.01581378718358714,
                0.01457654435573385,
                0.023969830862940238,
                0.009463851982593087,
                0.012644767943788904,
                0.02427446878599831,
                0.012344543626971113,
                0.021309259678483353,
                0.014094301224631818,
                0.000854666881265929,
                0.02828338245693918,
                0.0042358301110381955,
                0.020097318313351143,
                0.015950838207238825,
                0.006743368215817238,
                0.009701290010459648,
                0.023019437990856973,
                0.012006563196868929
            ],
            [
                0.0048579052805562415,
                0.009942029379857272,
                0.005564907316044027,
                0.0054534682343285335,
                0.013006712466995637,
                0.00036821993344858246,
                0.003221804592513726,
                0.013038419496789293,
                0.0028837406760746837,
                0.010817597176766083,
                0.003714883316716529,
                -0.00851767027443988,
                0.014821836071584651,
                -0.005621995850103273,
                0.00817944975403286,
                0.0047151628060036,
                -0.0030269700221553504,
                -0.0005053602306345961,
                0.011741335284629872,
                0.002801735304844241
            ],
            [
                -0.0005808853738994189,
                0.0023950132643287213,
                -0.002254899946035721,
                -0.0021189586772113575,
                0.005713386395896726,
                -0.00593394733074295,
                -0.0037838191068733165,
                0.004873122177832148,
                -0.003842768815309899,
                0.0033006179242834836,
                -0.003170517969695885,
                -0.013118379950856351,
                0.007278213282934389,
                -0.010824174514802882,
                0.00023031091952686593,
                -0.0025828379438421643,
                -0.008972172233372296,
                -0.005652667539385568,
                0.005152690821357948,
                -0.0038130847491704895
            ],
            [
                0.0023762038591564685,
                0.007064529197855641,
                0.0025617063192716217,
                0.0014831276708333918,
                0.008807844981731944,
                -0.002258435513876758,
                0.0006817261894614475,
                0.010539531401970335,
                -0.00027169829703917056,
                0.007453815389247227,
                0.0003696042412070936,
                -0.009196948969896368,
                0.01271359656900938,
                -0.007432153387089744,
                0.004514819149614469,
                0.0024251035479406035,
                -0.005560102565127681,
                -0.0024200320050824387,
                0.008005985112762478,
                -0.0009484407816913594
            ],
            [
                -0.0013928403790614365,
                0.0003790881145632111,
                -0.002828917815750895,
                -0.001975734259039634,
                0.0025466645015216186,
                -0.007294796242988637,
                -0.004546693884341922,
                0.0037931265459141446,
                -0.004620946887555677,
                0.0017617963355472084,
                -0.0041843941506512,
                -0.014162519995871793,
                0.006177790590903698,
                -0.011351635566838233,
                -0.0006204178609413097,
                -0.002968239318586607,
                -0.008775645455634886,
                -0.007678731067574078,
                0.003249276038741818,
                -0.004115673306727797
            ],
            [
                -0.009214890496072084,
                -0.0061830342639810545,
                -0.009151254268849513,
                -0.009790603419329013,
                -0.002805794745479577,
                -0.012963652797385098,
                -0.010196649051957172,
                -0.0029717791828813146,
                -0.011533724024637586,
                -0.005430622675126453,
                -0.01043260151400158,
                -0.018284550877274725,
                -0.002300616653403661,
                -0.016442827517997353,
                -0.00584615773124066,
                -0.009736919004340799,
                -0.014754616558044768,
                -0.01354427328897508,
                -0.003667735117530204,
                -0.011037082057940725
            ],
            [
                0.007238166264770634,
                0.011351992694920125,
                0.006754249105208136,
                0.006177444831171159,
                0.014528113731837978,
                0.0021144472514623962,
                0.004930688515257385,
                0.015594092266581783,
                0.004172342489176356,
                0.01274467516483741,
                0.006258567047735881,
                -0.006205781242292148,
                0.01736116425310549,
                -0.0028105989835977498,
                0.01127313014036183,
                0.008047222252855986,
                -0.001339248775516021,
                0.0018841336975757939,
                0.015074245711605382,
                0.004662414174401156
            ],
            [
                0.005255979726614714,
                0.007666781661017585,
                0.005406453046070533,
                0.0034316947094726654,
                0.010909510236698295,
                0.00014388564255894348,
                0.002944230895065412,
                0.01174380915618097,
                0.0024788453245563613,
                0.010203211960239109,
                0.002437085409055933,
                -0.008487114941377855,
                0.015497002795159674,
                -0.0059172092245958945,
                0.008700605407046405,
                0.005298027017899937,
                -0.0034740474622960995,
                -0.0005131954438509337,
                0.011157212155419923,
                0.001615046845110744
            ],
            [
                0.00596556497239752,
                0.009751278318241506,
                0.007100160645898918,
                0.006188209726158487,
                0.014233170176049859,
                0.0013645461231220372,
                0.004165904263451074,
                0.015053932040732344,
                0.002797472937345833,
                0.011880406628308842,
                0.003950296586475062,
                -0.00784821403721542,
                0.016930615383264385,
                -0.0033759330563603385,
                0.008965448484408866,
                0.005617841873787091,
                -0.002324847867363341,
                0.0011702132465404266,
                0.013532493477808084,
                0.003850568934440657
            ],
            [
                -0.0056442790339095664,
                -0.0027965654519478966,
                -0.006550120145629993,
                -0.005478266176894678,
                0.0007439591598721304,
                -0.008704554781257255,
                -0.007695893025980635,
                0.0010518400445040988,
                -0.00778700475961645,
                -0.001590971475331069,
                -0.007251241264068936,
                -0.015940450234619638,
                0.002311923705066428,
                -0.01280765391963414,
                -0.0024841123136068568,
                -0.005909549401739661,
                -0.011571747708577964,
                -0.01001989109953911,
                -0.0011814426755375725,
                -0.006810122377394059
            ],
            [
                0.0093758909108973,
                0.014060847318274212,
                0.008745086251037737,
                0.008494945727323644,
                0.018002396584153677,
                0.005350708310711418,
                0.007122998846017835,
                0.0193765041918162,
                0.007194068491625134,
                0.014883660939713174,
                0.007045753973832443,
                -0.0038261418822110294,
                0.02100210745182096,
                -0.0016459872618334662,
                0.014065686957970386,
                0.008532122997553727,
                0.0003218774692551176,
                0.004049104877959984,
                0.01617450212548405,
                0.006780756549289604
            ],
            [
                -0.0013711465157566344,
                0.00030936748901946463,
                -0.002093648734697325,
                -0.0031290732788231707,
                0.003348729207203862,
                -0.005091516009486414,
                -0.004942315097110109,
                0.005788132120133195,
                -0.0040304299689856325,
                0.0014221667680156436,
                -0.004447157869861826,
                -0.01375911174399048,
                0.006310901709619853,
                -0.011304264897126447,
                0.0010378022354265496,
                -0.002740230701669262,
                -0.008581305340896501,
                -0.007377824761218886,
                0.003907581639027257,
                -0.004903547154890923
            ],
            [
                -0.004206681782177555,
                -0.0012627917981683466,
                -0.003959184440921015,
                -0.0032909755828718855,
                0.00153200163917287,
                -0.008135331689424673,
                -0.006220242367573029,
                0.0030653459086976533,
                -0.00616386043051755,
                -8.486024147082821e-05,
                -0.0057350332536841905,
                -0.01433473323252338,
                0.003813869300981511,
                -0.011632356274205814,
                -0.0013699300068048615,
                -0.004690110868464665,
                -0.011122671994669167,
                -0.009252431538208438,
                0.002412297679993301,
                -0.0056356386277091625
            ],
            [
                -0.006551414961082722,
                -0.0023468288756085328,
                -0.005860928790145584,
                -0.006808360384229514,
                -0.0015052760642619149,
                -0.010072952092774853,
                -0.00845203130170747,
                6.675551734392831e-05,
                -0.008769562396510819,
                -0.00257873090224219,
                -0.007823030769405673,
                -0.016317488987541994,
                0.0013274850943293128,
                -0.01437285474690721,
                -0.004747511299618323,
                -0.0058125285895487076,
                -0.01144741573821063,
                -0.010939798277238365,
                -0.0003034393746970229,
                -0.008895564059349336
            ],
            [
                0.010143181776707004,
                0.012337010479102635,
                0.009132996516281945,
                0.00933598882346334,
                0.015914467302678516,
                0.0031879041771618096,
                0.0065162271167377595,
                0.01773394099679211,
                0.0057927210044623504,
                0.014649304222023221,
                0.007285110644241349,
                -0.005097766502854055,
                0.019404120452374385,
                -0.0031202359045988236,
                0.013179095586163172,
                0.009333893536770697,
                -0.00027718479803666283,
                0.002841726796164684,
                0.015270761341110333,
                0.006231233853206693
            ],
            [
                0.010670505287844474,
                0.014845677787601045,
                0.009233763189868969,
                0.008872813008958851,
                0.017776245681961483,
                0.004807230473441183,
                0.006436971244128402,
                0.01925292307874686,
                0.006289638026580706,
                0.014935836737030861,
                0.008420714935600891,
                -0.004710700532643004,
                0.021277988411238145,
                -0.002117053287241635,
                0.014242384149766836,
                0.010510643928602964,
                0.0012352448990102867,
                0.004546292394579963,
                0.01712727149846164,
                0.006784353700384328
            ],
            [
                0.011949199965556349,
                0.014799283760191325,
                0.010710773972057277,
                0.010833414806594102,
                0.01983667109564784,
                0.005045738682894912,
                0.008173981796875215,
                0.020487568947023926,
                0.007548661995296583,
                0.017185000128806176,
                0.009438076629714576,
                -0.0028699426892087837,
                0.022496099379199996,
                -0.00033175135184765336,
                0.014041622110768526,
                0.011011059941164324,
                0.0016220066290763915,
                0.004926488171453372,
                0.01828770699672282,
                0.007655772228444446
            ],
            [
                -0.0011042268140774546,
                0.002880978914365292,
                -0.001724183838722414,
                -0.0009798155182536756,
                0.005509585697509326,
                -0.0055397251332023716,
                -0.003580264732221287,
                0.006087648538033593,
                -0.0032806640065183505,
                0.0031932201956001234,
                -0.0024158450196952305,
                -0.0134137403693395,
                0.006793682205793439,
                -0.010207752585093733,
                0.0010222795316534095,
                -0.002023314001311873,
                -0.007754196685671492,
                -0.0069847587879334734,
                0.00509197249655287,
                -0.0038624135641146607
            ],
            [
                0.00047841902875856855,
                0.005171401749389731,
                0.0011924785467259075,
                0.0001192443723538516,
                0.0068813060826070594,
                -0.0039079851756245445,
                -0.0006618126007234714,
                0.007806916731629472,
                -0.002270929732845307,
                0.0046655419240852715,
                -0.0012942340533618562,
                -0.01107842796475183,
                0.010102602811301067,
                -0.009322875954671671,
                0.00332820541759229,
                0.0016290314943811712,
                -0.007357470219333954,
                -0.00470966957004753,
                0.00782107151397122,
                -0.0008911731130844869
            ],
            [
                0.003735819181976873,
                0.006642050146675815,
                0.0015189398083752827,
                0.0031315086418276985,
                0.00939287002522173,
                -0.002030817952501583,
                0.0001277623266564024,
                0.009434232001955626,
                0.0003420197303349517,
                0.006522649862613801,
                0.0009502594361279968,
                -0.011014141670943651,
                0.011581093707284756,
                -0.007808845599177045,
                0.005334113227364874,
                0.0026254973920941042,
                -0.004790138106919612,
                -0.0025543570313728108,
                0.00792827523136984,
                0.0002376837390509406
            ],
            [
                0.006362503077099623,
                0.008338087718155683,
                0.005244921168886771,
                0.0050381104856813165,
                0.013000634667440685,
                7.769506479746844e-05,
                0.003353220205248475,
                0.01432909298710102,
                0.0014214584235445738,
                0.010514826982879474,
                0.0032264664608944974,
                -0.008022820886936025,
                0.015653888237508812,
                -0.005645851286927448,
                0.008496983696864704,
                0.005295114550017804,
                -0.002201825064003512,
                7.861456354733469e-06,
                0.012517528122182368,
                0.002350712407546707
            ],
            [
                -0.00047907698239218826,
                0.004169736800613135,
                -0.0006216108341816356,
                9.877268129798294e-05,
                0.006171956381640977,
                -0.004970270538288521,
                -0.0026418155793485666,
                0.00753000409142157,
                -0.0031321883111792436,
                0.004920654544204264,
                -0.0006085132096567381,
                -0.012017338641117712,
                0.008503515566466778,
                -0.008594906803678632,
                0.0025621025378406524,
                0.00016629357475521917,
                -0.006413872499596696,
                -0.005497733277845662,
                0.005000145788250403,
                -0.0022998274444245223
            ],
            [
                -0.003226490794287248,
                -0.00040881012542226894,
                -0.0027736682125015003,
                -0.0024026040521211048,
                0.0037061688472057094,
                -0.006194817323415853,
                -0.004343018080768052,
                0.004517521155683073,
                -0.00462271167561743,
                0.00034617483236956133,
                -0.00504221508523661,
                -0.01441700334838238,
                0.005416023932850054,
                -0.011307255642318492,
                -0.0012641001550960955,
                -0.002517473078604915,
                -0.010349646271763305,
                -0.007893684231026868,
                0.003505784302089325,
                -0.00584587437818532
            ],
            [
                -0.0019664963137351675,
                0.00108844599832421,
                -0.003390542479021516,
                -0.002096049829829437,
                0.0033012041285983597,
                -0.006842641065283747,
                -0.004310050491799643,
                0.004221943069473325,
                -0.005895946223982353,
                0.0014785798487242068,
                -0.004404393369554482,
                -0.013937836642285878,
                0.006839998534786776,
                -0.010299560609682843,
                -0.00047211815552050034,
                -0.0023262332997373582,
                -0.008695792298352635,
                -0.006503908720213918,
                0.003622443631354672,
                -0.0053404615406252515
            ],
            [
                0.011564983301439114,
                0.016044867020327813,
                0.011679781387254996,
                0.012739288640201896,
                0.021091537078977655,
                0.007404567416548553,
                0.010562884769753374,
                0.021740122458008163,
                0.008845518435536655,
                0.018444571078379823,
                0.010591478176067618,
                -0.002740620412899331,
                0.02372951835378804,
                0.0008231023461522837,
                0.016690623188128393,
                0.010898199784104726,
                0.00399230489924602,
                0.0059512997760927675,
                0.01883794312122504,
                0.008255072502436109
            ],
            [
                0.008155185336502974,
                0.012612147198192996,
                0.008576551754394554,
                0.007464770432900895,
                0.015668598570467956,
                0.0027920764437584737,
                0.006401107393069049,
                0.017292886533112818,
                0.004632303849327125,
                0.013193918747862705,
                0.0063164712508128875,
                -0.0062703237004152115,
                0.019348649645817957,
                -0.0033141272616767545,
                0.010488970904731734,
                0.006873074795538737,
                0.00038141744939987994,
                0.0009828370151292677,
                0.014072380012169016,
                0.004226275115978998
            ]
        ],
        [
            [
                0.39188126684549474
            ],
            [
                0.41123590735095944
            ],
            [
                0.389290695001497
            ],
            [
                0.3889087900024543
            ],
            [
                0.42914540369590004
            ],
            [
                0.3651705997931576
            ],
            [
                0.3782086974144389
            ],
            [
                0.43366607601443097
            ],
            [
                0.3741293250239445
            ],
            [
                0.41626448716598546
            ],
            [
                0.3806838853668062
            ],
            [
                0.3344840165036163
            ],
            [
                0.44404113119474714
            ],
            [
                0.3387344801176517
            ],
            [
                0.40722247029325426
            ],
            [
                0.3890984862428048
            ],
            [
                0.34779054159030287
            ],
            [
                0.36024295843771625
            ],
            [
                0.425982142817493
            ],
            [
                0.37554526456434423
            ]
        ]
    ]
}
